{
  "params": {
    "learning_rate": 0.01,
    "n_epochs": 50,
    "shuffle": true,
    "random_state": 42,
    "patience": null,
    "tol_no_improve": 1e-05
  },
  "w": [
    0.010639698843448463,
    0.06225037667588902,
    0.01888908515623799,
    -0.0037969870708295453,
    -0.049143441801505885,
    0.2229015683371117,
    -0.07931379906683499,
    -0.05647313303397494,
    0.02223485725648371,
    -0.07793972222951952,
    -0.12797082409042132,
    0.035913919519923454,
    -0.0005225229935387691,
    -0.1632394109474381,
    -0.03776003071178134,
    -0.09175927618397015,
    0.2063564008045834,
    -0.07146672477385607,
    0.04582520056830163,
    0.0559574160822011,
    -0.11168687531607391,
    -0.11497466357586075,
    -0.04903475929601659,
    -0.15005405724644405,
    -0.02477717374829186,
    0.03337890575732857,
    -0.155349306153483,
    -0.11686160741977034,
    -0.11135380597293415,
    0.03495083916796088
  ],
  "b": -0.010000000000000004,
  "history": {
    "errors": [
      21,
      16,
      13,
      13,
      11,
      17,
      11,
      9,
      11,
      8,
      10,
      15,
      8,
      9,
      15,
      7,
      18,
      9,
      9,
      8,
      6,
      8,
      12,
      9,
      6,
      11,
      9,
      9,
      9,
      10,
      9,
      5,
      12,
      11,
      6,
      9,
      8,
      10,
      8,
      11,
      12,
      8,
      9,
      9,
      12,
      6,
      9,
      11,
      11,
      6
    ],
    "train_accuracy": [
      0.9773869346733668,
      0.9798994974874372,
      0.9773869346733668,
      0.9723618090452262,
      0.949748743718593,
      0.9773869346733668,
      0.9798994974874372,
      0.9874371859296482,
      0.9773869346733668,
      0.9798994974874372,
      0.9723618090452262,
      0.9698492462311558,
      0.9824120603015075,
      0.9849246231155779,
      0.9849246231155779,
      0.9723618090452262,
      0.9824120603015075,
      0.9798994974874372,
      0.9849246231155779,
      0.9899497487437185,
      0.9849246231155779,
      0.9874371859296482,
      0.9698492462311558,
      0.992462311557789,
      0.9773869346733668,
      0.9824120603015075,
      0.9748743718592965,
      0.9899497487437185,
      0.9748743718592965,
      0.9824120603015075,
      0.9874371859296482,
      0.964824120603015,
      0.9798994974874372,
      0.9773869346733668,
      0.9849246231155779,
      0.9899497487437185,
      0.9748743718592965,
      0.9874371859296482,
      0.964824120603015,
      0.949748743718593,
      0.9798994974874372,
      0.9849246231155779,
      0.9748743718592965,
      0.9798994974874372,
      0.9773869346733668,
      0.9849246231155779,
      0.9824120603015075,
      0.9899497487437185,
      0.9899497487437185,
      0.9748743718592965
    ],
    "val_accuracy": [
      0.9764705882352941,
      0.9647058823529412,
      0.9882352941176471,
      0.9882352941176471,
      0.9529411764705882,
      0.9764705882352941,
      0.9764705882352941,
      0.9764705882352941,
      0.9764705882352941,
      0.9647058823529412,
      0.9647058823529412,
      0.9882352941176471,
      0.9764705882352941,
      0.9882352941176471,
      0.9764705882352941,
      0.9764705882352941,
      0.9882352941176471,
      0.9882352941176471,
      0.9764705882352941,
      0.9882352941176471,
      0.9882352941176471,
      0.9882352941176471,
      0.9764705882352941,
      0.9764705882352941,
      0.9882352941176471,
      0.9764705882352941,
      0.9647058823529412,
      0.9882352941176471,
      0.9647058823529412,
      0.9647058823529412,
      0.9647058823529412,
      0.9647058823529412,
      0.9647058823529412,
      0.9764705882352941,
      0.9764705882352941,
      0.9764705882352941,
      0.9647058823529412,
      0.9647058823529412,
      0.9764705882352941,
      0.9647058823529412,
      0.9882352941176471,
      0.9882352941176471,
      0.9529411764705882,
      0.9764705882352941,
      0.9529411764705882,
      0.9882352941176471,
      0.9882352941176471,
      0.9764705882352941,
      0.9764705882352941,
      0.9882352941176471
    ],
    "biases": [
      0.03,
      0.05,
      0.019999999999999997,
      0.03,
      -3.469446951953614e-18,
      0.03,
      -3.469446951953614e-18,
      0.009999999999999997,
      -3.469446951953614e-18,
      -0.020000000000000004,
      -3.469446951953614e-18,
      -0.010000000000000004,
      -0.030000000000000006,
      -3.469446951953614e-18,
      -0.010000000000000004,
      -3.469446951953614e-18,
      0.019999999999999997,
      0.03,
      0.019999999999999997,
      0.019999999999999997,
      0.019999999999999997,
      -3.469446951953614e-18,
      -3.469446951953614e-18,
      0.009999999999999997,
      -0.010000000000000004,
      -3.469446951953614e-18,
      -0.010000000000000004,
      -3.469446951953614e-18,
      -0.010000000000000004,
      -0.010000000000000004,
      -0.020000000000000004,
      -0.030000000000000006,
      -0.030000000000000006,
      -0.020000000000000004,
      -3.469446951953614e-18,
      -0.010000000000000004,
      -0.010000000000000004,
      -0.010000000000000004,
      -0.010000000000000004,
      -0.04000000000000001,
      -0.04000000000000001,
      -0.04000000000000001,
      -0.030000000000000006,
      -3.469446951953614e-18,
      -0.020000000000000004,
      -3.469446951953614e-18,
      -0.05000000000000001,
      -3.469446951953614e-18,
      -0.010000000000000004,
      -0.010000000000000004
    ],
    "stopped_early": false,
    "best_val_accuracy": 0.9882352941176471,
    "best_epoch": 2
  }
}