{
  "params": {
    "learning_rate": 0.005,
    "n_epochs": 10,
    "shuffle": true,
    "random_state": 42,
    "patience": 3,
    "tol_no_improve": 1e-05
  },
  "w": [
    -0.017623796689877885,
    -0.01409946881858562,
    -0.011562232658531003,
    -0.01625795781917271,
    -0.020097566839500244,
    0.014820677649081274,
    -0.009680787293769717,
    -0.015846506576276207,
    0.01163149741741578,
    0.02222617490098091,
    -0.02217795176398214,
    0.008853340610022723,
    -0.021690471691531706,
    -0.029024607903923545,
    -0.05251552351468228,
    -0.009249944963396841,
    0.013323151518028271,
    -0.03846063556455186,
    0.009927303213700637,
    0.015966203624833825,
    -0.03671012867647284,
    -0.05345363858142641,
    -0.01742805865350232,
    -0.0461179022727189,
    -0.020576770874460693,
    -0.0032180572925189343,
    -0.020986011033887197,
    -0.01924988093400459,
    -0.02155296506616174,
    0.005628265445711283
  ],
  "b": 0.004999999999999998,
  "history": {
    "errors": [
      22,
      15,
      10,
      12,
      10
    ],
    "train_accuracy": [
      0.9748743718592965,
      0.9849246231155779,
      0.9698492462311558,
      0.9522613065326633,
      0.964824120603015
    ],
    "val_accuracy": [
      0.9764705882352941,
      0.9882352941176471,
      0.9882352941176471,
      0.9764705882352941,
      0.9529411764705882
    ],
    "stopped_early": true,
    "best_val_accuracy": 0.9882352941176471,
    "best_epoch": 1
  }
}